34 128
1 0.13069218 0.1516197 -0.03146478 0.04411934 0.021168008 0.09952999 -0.026548952 0.04696427 0.07678226 0.053747557 -0.073258325 0.015303629 0.031133804 -0.11190272 -0.20358953 -0.12532924 -0.017649135 -0.17455713 -0.05070491 0.18380766 -0.14496648 0.11295358 0.16283932 -0.006465257 -0.018760694 -0.1496642 0.03696543 0.10163881 -0.018586975 0.047117062 -0.07775702 0.13935658 0.024419162 0.18931052 -0.035612356 0.025080968 -0.02956791 0.08433975 0.10480719 -0.09244888 -0.060705703 0.06146078 -0.112571724 0.17358118 0.2481342 -0.09676377 0.054365437 0.00896368 0.04650715 -0.03391442 -0.017923053 -0.0780572 -0.06413266 -0.1495779 -0.12050912 0.31568247 -0.049965456 -0.037193403 0.00032039272 0.041317113 -0.061397254 -0.009742123 -0.061396364 0.12517741 0.04088822 0.08952153 0.13912319 -0.08080754 0.093577 0.13143773 -0.044014882 -0.1254034 0.08523755 -0.15669104 -0.271438 -0.07962188 0.029543431 -0.06483881 -0.08487517 -0.23342226 0.13975827 -0.20257169 0.042593192 0.21196364 0.0135671105 0.066639155 0.075655684 -0.064851776 0.08922028 0.1475955 0.00177241 -0.02819357 0.12228245 0.037502885 -0.021215644 0.13063765 0.014480594 0.16894954 -0.08729604 -0.10839507 -0.021783689 0.007396477 -0.13115852 -0.07554088 -0.021344433 0.014313591 -0.14707461 0.100795746 0.09015728 -0.023121292 0.2228258 0.11009341 0.08464942 -0.0769804 0.19690146 0.07316239 -0.12983239 0.04147925 0.04910227 -0.044542752 0.050536413 0.106746286 -0.064893626 0.13505816 0.10885093 -0.021650434 -0.011401774 0.13183454
34 0.00832234 0.1671354 -0.08009899 0.0014631075 0.15598087 0.05430567 -0.0063224924 0.021382185 0.14315863 0.030988606 0.030552786 0.123450615 0.07209294 -0.06446872 -0.2091099 -0.11750334 -0.04143794 -0.33098444 0.021703044 0.29203698 -0.19415265 0.19665338 0.35227817 0.03386234 -0.07417201 -0.07251994 0.17884101 -0.07689939 -0.031088311 0.02940522 0.12849455 0.09572655 0.21094808 0.1199897 0.023143385 0.13604337 0.10518736 -0.0430579 0.09307626 -0.07949208 -0.098688595 0.16499622 -0.15843283 0.09256858 0.17231615 -0.13197291 -0.16097239 -0.10215012 0.1176716 -0.026346799 -0.020516777 -0.018826297 0.0040361853 -0.07736377 -0.2283146 0.113686636 -0.00384242 0.04025546 0.05139864 -0.01413182 0.15448986 -0.055406805 0.0048263767 0.18189903 -0.026962204 0.04983765 0.07114538 -0.098565154 -0.07744538 0.16330121 0.06481305 -0.0053523923 0.047782987 -0.24646114 -0.2604181 0.03407398 0.1597604 -0.12467217 -0.0654642 -0.07219739 -0.060675714 -0.15159291 -0.19462246 -0.0502668 0.013355691 0.012604066 0.04382528 0.04739113 -0.009393596 0.052368313 -0.00014338006 -0.04473997 0.14596958 -0.19235586 0.011080096 -0.007760835 -0.08191907 0.35488445 0.031849902 -0.15727499 0.11032929 -0.012705106 -0.0883058 -0.09756841 -0.15223086 0.055531356 -0.1636235 -0.0132616935 0.19244093 0.18622245 0.37501132 0.025408553 -0.028015379 0.05695264 0.19384927 0.04230014 -0.044379316 0.08545436 0.11830645 -0.02961442 -0.0218125 0.075722374 -0.2559934 0.20872788 0.02983883 -0.06422032 0.007563406 0.075524345
33 0.033768266 0.15433516 -0.06481063 0.011209239 0.09984482 0.06660462 -0.013893477 0.03153659 0.12509345 0.036385234 -0.0014931805 0.08946533 0.06221072 -0.07685443 -0.20017883 -0.121210285 -0.038496662 -0.27235058 0.0066905236 0.25273696 -0.1800157 0.16278955 0.286536 0.01816694 -0.051138844 -0.09090083 0.12773526 -0.022959832 -0.025988882 0.024951661 0.06855727 0.09936815 0.14332259 0.12927486 0.0066199983 0.0892146 0.063914336 -0.0025398363 0.09974305 -0.082038745 -0.080494665 0.1280611 -0.13768536 0.11176393 0.18710917 -0.10806788 -0.09499288 -0.07103839 0.089707986 -0.032862525 -0.014351528 -0.030921787 -0.009798631 -0.09131133 -0.17920613 0.15382715 -0.017519196 0.020517228 0.032861903 0.009790267 0.08224616 -0.047844484 -0.015516562 0.15803671 -0.0096441675 0.060539197 0.084280424 -0.08779114 -0.017653406 0.14896286 0.031300094 -0.04210718 0.054807335 -0.20423813 -0.24643275 -0.0037120534 0.11403336 -0.107181326 -0.064076014 -0.11939126 -0.002152273 -0.15788953 -0.11645085 0.021345584 0.015416475 0.02303888 0.04787084 0.01444737 0.02562745 0.06636378 0.007783205 -0.04011878 0.12958337 -0.10558598 -0.0032140191 0.03035227 -0.045304626 0.2790385 0.0006463205 -0.13452068 0.07100501 0.0017737302 -0.09461298 -0.0863265 -0.10573524 0.04353956 -0.14408942 0.017994735 0.15296187 0.112728454 0.31496307 0.04968937 -0.0026008962 0.020410169 0.18750465 0.053540323 -0.06672097 0.061352044 0.090363145 -0.03776959 0.002253287 0.08206893 -0.18718673 0.17197414 0.051787157 -0.045874182 0.001862247 0.08143923
3 0.09836693 0.15591969 -0.042909477 0.02840012 0.05569881 0.087336786 -0.023879666 0.03754163 0.09292284 0.049732424 -0.04033646 0.044102684 0.04446124 -0.09429505 -0.19607474 -0.12074315 -0.02335394 -0.21426286 -0.028529825 0.20806065 -0.15566637 0.12909251 0.2096786 0.005238423 -0.034587976 -0.12532064 0.07580818 0.051805478 -0.018001778 0.042851627 -0.02621541 0.11790494 0.078050666 0.16652423 -0.01137129 0.04945672 0.006824209 0.050077934 0.097622655 -0.086197495 -0.06821244 0.08648359 -0.121091865 0.14272808 0.21929146 -0.103566304 -0.0057333168 -0.015410386 0.065632775 -0.031529684 -0.014702959 -0.058444247 -0.04143158 -0.1273344 -0.14276649 0.2431169 -0.033475943 -0.017900411 0.016958341 0.022890802 -0.0014870313 -0.024102509 -0.04007806 0.12848857 0.020101568 0.073180765 0.1182869 -0.080208555 0.04144885 0.13557658 -0.014282983 -0.09102848 0.06935377 -0.17304814 -0.25205815 -0.046806008 0.06448011 -0.076466024 -0.07927625 -0.18537344 0.08556275 -0.18126518 -0.02357725 0.1286009 0.009195965 0.05073401 0.061632562 -0.02936476 0.06318708 0.11815132 -0.0042606015 -0.029606078 0.12659654 -0.02644971 -0.0128553845 0.08729807 -0.014473694 0.2084732 -0.04985068 -0.122215115 0.009176488 0.00040822534 -0.11286732 -0.078240484 -0.057589475 0.02349211 -0.14514227 0.064299755 0.113851644 0.03541199 0.24520798 0.07686637 0.05015731 -0.044149656 0.1874581 0.057975553 -0.0943557 0.049624547 0.060680754 -0.04119644 0.0279264 0.094525546 -0.115770645 0.14706376 0.08169422 -0.029011773 -0.007862668 0.10760917
2 0.09956885 0.15037842 -0.03849531 0.027151082 0.0496258 0.08979902 -0.017507695 0.03838669 0.08788198 0.046802968 -0.04529619 0.040439356 0.04147653 -0.095958434 -0.19522443 -0.12063548 -0.024097351 -0.1985986 -0.031906553 0.19948275 -0.15166295 0.12385136 0.20239623 0.0015876022 -0.032987274 -0.12364189 0.065390274 0.054471966 -0.02000492 0.038507316 -0.028282663 0.12350945 0.06706171 0.16279665 -0.017504454 0.0502926 0.0008679244 0.05552462 0.10447865 -0.08496425 -0.0698062 0.087150574 -0.11718134 0.15116218 0.22308213 -0.09749966 0.002595503 -0.019290922 0.06391527 -0.029170603 -0.018074254 -0.056264326 -0.045684293 -0.1293162 -0.1407094 0.25684923 -0.0340268 -0.020314634 0.014618064 0.031377774 -0.007513888 -0.025012074 -0.045796443 0.12917046 0.020273093 0.0753974 0.12070192 -0.08088709 0.05405307 0.13630447 -0.01542333 -0.09204012 0.06749604 -0.16959836 -0.25791034 -0.05612065 0.05526801 -0.079349056 -0.076361485 -0.1959591 0.08796559 -0.18554574 -0.009485362 0.14218263 0.015858805 0.053260144 0.06486555 -0.036727306 0.06790651 0.1162504 -0.0029716522 -0.03185135 0.12303368 -0.010139842 -0.015434527 0.10124421 -0.0031742272 0.20125918 -0.058710977 -0.112322025 0.010664114 0.0031954322 -0.11374181 -0.07269795 -0.049550734 0.018835882 -0.14922345 0.074696384 0.10928358 0.028421488 0.24895787 0.08151514 0.052374117 -0.043206632 0.18498363 0.061614577 -0.10565498 0.05112094 0.061288945 -0.0377088 0.035519686 0.09608018 -0.10358416 0.14688261 0.089331575 -0.026290007 -0.0113644535 0.111267745
4 0.13016945 0.14765045 -0.029509885 0.051257316 0.022655597 0.0989516 -0.029915448 0.052604083 0.06759513 0.051555898 -0.071992606 0.009499291 0.030709503 -0.10837141 -0.19654019 -0.11858904 -0.018916665 -0.1606107 -0.051567193 0.18161671 -0.1426877 0.111085184 0.15541461 -0.010708379 -0.021399714 -0.15115951 0.028975096 0.10494063 -0.01108568 0.052302554 -0.07980008 0.1344337 0.01844309 0.18924159 -0.035329916 0.019305853 -0.031659104 0.08868209 0.10102021 -0.09115524 -0.05866042 0.05823131 -0.10906917 0.17162183 0.24621485 -0.09643237 0.05899459 0.00961916 0.03966652 -0.029840885 -0.01731285 -0.07741406 -0.06292289 -0.1527372 -0.11933996 0.3198173 -0.053405493 -0.03856822 0.004338281 0.04168871 -0.062962785 -0.008274875 -0.05945859 0.11949654 0.03813073 0.09603428 0.14226682 -0.0782069 0.09802418 0.12779231 -0.044937957 -0.12973921 0.08328498 -0.15433422 -0.27513772 -0.085239425 0.026173359 -0.05970672 -0.08140933 -0.24003735 0.14331432 -0.2122296 0.04081784 0.22070654 0.009643395 0.066659264 0.07865498 -0.06890004 0.08951084 0.150244 -0.0030880268 -0.029401297 0.11842355 0.041525736 -0.019664288 0.13718227 0.01237368 0.16657418 -0.08899364 -0.09934169 -0.026962599 0.012261056 -0.13442408 -0.068754666 -0.019372653 0.012662759 -0.15219642 0.09958878 0.08463579 -0.02259339 0.21793084 0.107025065 0.0850842 -0.074212916 0.19445336 0.073921874 -0.13636209 0.038850497 0.050343532 -0.046717618 0.05383628 0.10738847 -0.05736819 0.13069072 0.109222546 -0.028266145 -0.008187852 0.14076304
32 0.06163804 0.15427256 -0.051503837 0.023608718 0.079617016 0.0776292 -0.01017641 0.036817767 0.106830575 0.03777303 -0.029208401 0.0640477 0.05472413 -0.07936541 -0.19738208 -0.122572154 -0.028672474 -0.22817576 -0.010384062 0.22367677 -0.15885186 0.14542109 0.2434779 0.005908279 -0.038720444 -0.10532831 0.10028312 0.019335946 -0.029695662 0.0309223 0.019606031 0.11730044 0.10338691 0.14674939 -0.0062511815 0.071543664 0.036674324 0.021285467 0.10159333 -0.081734955 -0.07782741 0.10361683 -0.1278036 0.13265675 0.2088694 -0.10796708 -0.045587406 -0.046091516 0.080350265 -0.031037671 -0.009474458 -0.042059347 -0.029369382 -0.105967775 -0.15817232 0.2158498 -0.021440458 0.0025309215 0.01954091 0.019980269 0.03883805 -0.036517892 -0.029948832 0.14919552 0.008123098 0.068018265 0.101917006 -0.090024695 0.011273694 0.14304875 0.005892768 -0.061461367 0.06770879 -0.19008711 -0.25621185 -0.031367566 0.09078319 -0.089905895 -0.073371895 -0.16072775 0.042138424 -0.17850822 -0.06886508 0.08477331 0.015626227 0.035776526 0.060828745 -0.014687255 0.04062138 0.096369356 0.0039949883 -0.03810229 0.12952192 -0.06629814 -0.002094559 0.061525606 -0.030589484 0.24589242 -0.032233946 -0.12987272 0.045510866 0.006347544 -0.110135354 -0.086061366 -0.08162537 0.030586893 -0.1496187 0.047190268 0.13330662 0.075624794 0.2892303 0.06842364 0.025575727 -0.009910622 0.19500938 0.05742665 -0.09014947 0.0555243 0.0767829 -0.040028032 0.015792143 0.09660485 -0.14809047 0.15562923 0.06870318 -0.04562184 -0.008454246 0.09335465
14 0.09505916 0.14704897 -0.038837258 0.031342775 0.0469874 0.08851037 -0.021639936 0.044188887 0.09007003 0.044139177 -0.049569823 0.03830241 0.043106444 -0.0897952 -0.19019942 -0.120502636 -0.025613926 -0.19295244 -0.028008724 0.19374974 -0.14852518 0.12271014 0.19118321 -0.0029661392 -0.024002204 -0.122598775 0.064791776 0.056174614 -0.019589294 0.03989974 -0.03180227 0.12274958 0.062495027 0.16607398 -0.020297077 0.04511393 0.004538292 0.052244026 0.09609074 -0.080686085 -0.06106578 0.083215475 -0.115332685 0.15016359 0.21540377 -0.09857859 0.005863307 -0.015592804 0.060641345 -0.029104615 -0.010856527 -0.057875115 -0.044855483 -0.123281345 -0.13225415 0.25564146 -0.0323741 -0.018706238 0.009031446 0.031676896 -0.013470582 -0.019449681 -0.047034826 0.12681101 0.022412887 0.07511484 0.11192089 -0.07802013 0.052555427 0.13035905 -0.015992085 -0.08867681 0.06782937 -0.16456039 -0.2548025 -0.051567927 0.050697297 -0.073614776 -0.07768191 -0.187542 0.08825453 -0.18061535 -0.0110152755 0.14552777 0.013193767 0.047105815 0.064693905 -0.034388073 0.06282791 0.11597134 0.0017189806 -0.029568 0.11538015 -0.009501538 -0.009313105 0.095265865 -0.00733508 0.19590764 -0.058820665 -0.11498646 0.009864849 0.0017563147 -0.118076846 -0.07189439 -0.045283165 0.02210892 -0.14543818 0.0723906 0.107323445 0.02081287 0.24281074 0.08557741 0.05054642 -0.04540896 0.1851246 0.06376273 -0.11030245 0.04679412 0.05850632 -0.0357639 0.032480333 0.100773886 -0.09984412 0.13876289 0.08286998 -0.034020968 -0.009237078 0.110128984
24 0.029519865 0.15434732 -0.061408795 0.014177226 0.115199365 0.06434787 -0.009921163 0.02872506 0.123393856 0.029910605 0.0010066648 0.09763449 0.06512699 -0.06902913 -0.19872762 -0.12265716 -0.03906102 -0.28333828 0.008701863 0.26504448 -0.18310885 0.1684359 0.29727048 0.021610001 -0.058704425 -0.08763607 0.13555929 -0.030064251 -0.032923028 0.030575864 0.07754327 0.098198295 0.15825213 0.13020326 0.007201421 0.1016109 0.06919607 -0.0068081855 0.09713974 -0.083693705 -0.082913674 0.13332175 -0.1400406 0.10891272 0.18634933 -0.11654832 -0.104119435 -0.0761182 0.094501816 -0.027500896 -0.013918458 -0.028986298 -0.017282313 -0.09264407 -0.1930371 0.15341806 -0.015716925 0.020113748 0.035743136 0.00032660324 0.09511098 -0.04542731 -0.018497866 0.16299026 -0.012203858 0.058479674 0.082162805 -0.089864075 -0.03336962 0.15513438 0.041122913 -0.03362391 0.06044426 -0.21318918 -0.25170314 0.008094642 0.122180656 -0.11463623 -0.067362726 -0.114432685 -0.014125459 -0.16000028 -0.13238639 0.009080771 0.013119195 0.022248084 0.04772716 0.022579841 0.018493084 0.06914374 0.008363907 -0.039676934 0.13605686 -0.12870297 -0.0010319792 0.02300562 -0.057652123 0.29884356 0.0052746064 -0.1425929 0.080994375 -0.005715208 -0.09264206 -0.09242959 -0.11071663 0.043751176 -0.14834245 0.018844485 0.16550943 0.13189824 0.32874954 0.04812665 -0.002342583 0.026273694 0.19670627 0.05115889 -0.06477825 0.065653384 0.09680823 -0.03571234 -0.0043453774 0.08256771 -0.20203258 0.1831741 0.048728894 -0.053365294 -0.0014952722 0.07768186
7 0.15897802 0.14859582 -0.019514313 0.06935074 -0.023462156 0.12599055 -0.029496718 0.07482469 0.049287006 0.07127651 -0.11459001 -0.009286895 0.016436882 -0.123019576 -0.21706122 -0.14861484 -0.011818271 -0.13353635 -0.07388165 0.17863816 -0.12361937 0.09294165 0.1383267 -0.03345684 7.688135e-05 -0.17685732 -0.02203695 0.15216278 -0.018805686 0.06678822 -0.120908275 0.17539774 -0.029790586 0.21010451 -0.058185045 -0.008756532 -0.06257553 0.12227437 0.11130937 -0.115367435 -0.049239166 0.03132258 -0.099235676 0.2118235 0.29965863 -0.07478994 0.115110815 0.021901462 0.013652002 -0.043382414 0.0053403485 -0.092001356 -0.08114434 -0.18152975 -0.086558804 0.3906142 -0.057464927 -0.06416773 -0.013823691 0.06944583 -0.12798527 -0.0054458226 -0.08922102 0.1266989 0.068916686 0.119911976 0.15818238 -0.08242283 0.15436883 0.11291498 -0.07940994 -0.16192551 0.11369527 -0.14040801 -0.30225 -0.11762962 -0.013375003 -0.054411698 -0.10245747 -0.3194783 0.19061506 -0.24999799 0.10912107 0.30812964 0.010861461 0.062061436 0.089835644 -0.101910025 0.12639491 0.17734611 0.017346758 -0.021430755 0.119632274 0.123225085 -0.041196715 0.18727933 0.03899214 0.12212407 -0.12789111 -0.09730344 -0.057981294 0.030735916 -0.16488187 -0.0718916 0.014970573 0.002176804 -0.14244784 0.14743757 0.06460094 -0.085784316 0.21128352 0.1436689 0.10641559 -0.09840853 0.21917333 0.07416351 -0.18415052 0.0191291 0.033469826 -0.05323966 0.0761662 0.14062764 -0.007003833 0.106495745 0.1367524 -0.02081768 -0.019460237 0.1516115
8 0.120524585 0.15376659 -0.03701194 0.040106714 0.039782103 0.09722221 -0.028117806 0.04366048 0.086382665 0.053992014 -0.06256461 0.026839713 0.040761355 -0.10343317 -0.19907893 -0.12263363 -0.023788458 -0.18722375 -0.04094889 0.19645648 -0.15121526 0.11808126 0.18231383 -0.0015816592 -0.022670338 -0.14180681 0.052161973 0.08651923 -0.01977741 0.04980504 -0.05360885 0.13889936 0.04860979 0.18653296 -0.024285829 0.03159405 -0.013374402 0.06810087 0.106565624 -0.09217319 -0.05848138 0.070306934 -0.11807036 0.16293897 0.2352592 -0.09951335 0.03683632 -0.0011672839 0.05694878 -0.03243929 -0.015982663 -0.07248731 -0.055420976 -0.14294259 -0.12985644 0.29233804 -0.04340718 -0.029860092 0.009281856 0.032712482 -0.032744825 -0.0145157315 -0.05439068 0.13046873 0.029443655 0.08423023 0.12935807 -0.079820506 0.07319892 0.13418998 -0.032092508 -0.11182478 0.08071876 -0.16187082 -0.274014 -0.070544556 0.041424483 -0.06642184 -0.083736174 -0.2219253 0.11998342 -0.2000442 0.02178458 0.18200086 0.011415826 0.060645297 0.07354918 -0.050859846 0.07627468 0.13716291 0.0022908559 -0.02549092 0.123380244 0.01783205 -0.012604066 0.12334807 0.007277047 0.17869608 -0.07285797 -0.114846416 -0.008353602 0.011063462 -0.12572555 -0.074388735 -0.02865629 0.019700095 -0.15315312 0.08662384 0.09625807 -0.004516299 0.23391679 0.09507412 0.06644366 -0.06536501 0.19317918 0.07179444 -0.12108138 0.03964784 0.05215065 -0.0420056 0.041888073 0.10805336 -0.083932474 0.13528605 0.09834056 -0.025268055 -0.008348927 0.12701462
9 0.08103222 0.15285315 -0.051068418 0.027762696 0.06953297 0.07951289 -0.023189398 0.03842311 0.096474655 0.04208251 -0.026963219 0.052979007 0.044886373 -0.085814424 -0.19605984 -0.11492682 -0.03080345 -0.22141549 -0.024650546 0.2209856 -0.16337621 0.13688977 0.23025088 0.0070131496 -0.038971882 -0.11042874 0.08748124 0.031021433 -0.02511307 0.03424141 -0.00048384903 0.11677599 0.08779445 0.15504254 -0.010779844 0.060763977 0.023811612 0.039523184 0.09911961 -0.08652725 -0.07349803 0.09577272 -0.12242697 0.14090754 0.2132372 -0.10690306 -0.027929816 -0.03419473 0.06768772 -0.031854972 -0.017271098 -0.050507046 -0.03894647 -0.11352573 -0.15222046 0.22380643 -0.031081498 -0.0057753664 0.017338032 0.019578656 0.01605675 -0.028596204 -0.035036203 0.13662246 0.010118271 0.06900616 0.10416475 -0.0813109 0.03239266 0.14160065 -0.0038406826 -0.0809685 0.066212885 -0.18520774 -0.25740442 -0.03856577 0.07563377 -0.083962634 -0.07470836 -0.16946839 0.06323076 -0.17738155 -0.04710933 0.10780264 0.013632294 0.04139607 0.058212396 -0.020830901 0.054998375 0.10833165 -0.00047547245 -0.03644307 0.12466106 -0.046631876 -0.012404804 0.07496323 -0.017432954 0.22565486 -0.040240366 -0.12163711 0.028647723 0.0032795102 -0.109198384 -0.07765131 -0.06598668 0.02715741 -0.14716297 0.058293216 0.12264176 0.051310994 0.271582 0.07207654 0.03628511 -0.02306424 0.19024241 0.05585461 -0.09814081 0.05301975 0.07008279 -0.03789864 0.024685502 0.09458792 -0.12985252 0.15401673 0.07559862 -0.035063222 -0.007972313 0.10232313
6 0.15574974 0.15341184 -0.015501709 0.06699705 -0.02308163 0.121519215 -0.026870128 0.071934626 0.054057762 0.070757695 -0.116823986 -0.0070342086 0.02135166 -0.12520906 -0.21971138 -0.14475563 -0.015467603 -0.13861836 -0.067041785 0.1820123 -0.13534772 0.09795123 0.13602816 -0.024454718 -0.008469245 -0.17669569 -0.016328866 0.15369068 -0.017553244 0.064810015 -0.122468084 0.16938649 -0.027469961 0.21349715 -0.05518097 -0.00297622 -0.06247662 0.12143954 0.112897396 -0.11594572 -0.054511372 0.036793374 -0.1005818 0.21128263 0.30552614 -0.0753008 0.114425704 0.020215787 0.015749581 -0.03751752 0.0050250036 -0.09863046 -0.07987358 -0.17904371 -0.091745526 0.39345786 -0.056798927 -0.066649064 -0.014950384 0.064956516 -0.12034781 -0.008383252 -0.092065826 0.12947632 0.06610409 0.11529143 0.16362686 -0.088117816 0.15927692 0.116881095 -0.0753388 -0.16562355 0.11516603 -0.13876916 -0.31043947 -0.11768956 -0.0096085295 -0.057248794 -0.10344055 -0.3182531 0.19525519 -0.25158027 0.10027927 0.303123 0.016582863 0.069337934 0.08557377 -0.09727369 0.13092086 0.18054508 0.010790021 -0.02657119 0.12423315 0.11878452 -0.037678704 0.18650484 0.042470526 0.13256761 -0.12610203 -0.10236419 -0.06296754 0.026701838 -0.17054082 -0.074335136 0.008079769 -0.0025046384 -0.14881548 0.15034091 0.07047172 -0.07883297 0.21470162 0.14850043 0.1122956 -0.09994985 0.22123566 0.07307778 -0.18186131 0.020080246 0.03850498 -0.060143802 0.07788647 0.1415672 -0.006249343 0.10988691 0.14197083 -0.026098793 -0.014965628 0.15597883
28 0.039003097 0.15134408 -0.059166364 0.011350378 0.10550066 0.066084884 -0.011749121 0.028317967 0.11890938 0.033053666 -0.0041135023 0.08373535 0.06223336 -0.07443969 -0.19126277 -0.115981475 -0.037239797 -0.26616597 0.0017746293 0.25070882 -0.17351197 0.15815297 0.2829736 0.012788654 -0.05452818 -0.08992117 0.1284399 -0.013206346 -0.032121316 0.031105217 0.05953125 0.107253104 0.1391898 0.1287721 0.00623149 0.091234535 0.058307324 0.0022700038 0.101556726 -0.079384275 -0.085224934 0.1277049 -0.13768694 0.11616541 0.19402434 -0.11364595 -0.089125246 -0.06597467 0.09384079 -0.026403785 -0.013045293 -0.03394455 -0.020153461 -0.09362601 -0.18470536 0.17608392 -0.018889247 0.016845897 0.03452635 0.011323234 0.08016001 -0.04171449 -0.022832833 0.16229957 -0.0035836268 0.06275636 0.086493246 -0.087560385 -0.014417014 0.14889854 0.02993451 -0.041217808 0.05942336 -0.20849715 -0.25856552 -0.0075512244 0.117854975 -0.10594529 -0.07316861 -0.12602633 0.0016214275 -0.16490026 -0.11561206 0.032170087 0.013760953 0.024531463 0.054925986 0.007992366 0.029140782 0.07616692 0.0054135486 -0.041885186 0.13861856 -0.11226731 -0.004432812 0.032413054 -0.048978988 0.28828797 -0.008851091 -0.14311993 0.07208227 -0.002167698 -0.0950488 -0.09074332 -0.10718373 0.03798626 -0.14732182 0.02719408 0.15773538 0.1139755 0.32091376 0.051228374 -0.00046294509 0.013078978 0.19815783 0.052326623 -0.07457017 0.06435537 0.09190638 -0.035287827 0.0019467691 0.08955788 -0.1858992 0.17945787 0.05872979 -0.04522879 -0.002465564 0.08661898
30 0.0054522124 0.17348902 -0.07473485 -0.0019001637 0.1464467 0.06301759 -0.0014118095 0.0234586 0.1547745 0.029286373 0.02968651 0.123581916 0.07497346 -0.062551774 -0.21574354 -0.12885459 -0.042648666 -0.32569218 0.016789416 0.2999903 -0.2016937 0.19623192 0.354927 0.022429531 -0.06556293 -0.07137222 0.17403765 -0.06427655 -0.033136196 0.026333764 0.11866734 0.09954115 0.19662571 0.1175591 0.016215783 0.13292736 0.099813014 -0.035218958 0.10521375 -0.08032068 -0.096512616 0.15482293 -0.15114652 0.09418457 0.17576888 -0.1219104 -0.15563665 -0.10294057 0.11767479 -0.030945107 -0.015404779 -0.016614689 -0.002284954 -0.06797641 -0.215917 0.119142376 -0.00048125174 0.043166522 0.044970647 -0.009992152 0.14860205 -0.06328536 0.00030806096 0.18132006 -0.027753629 0.055123113 0.07007715 -0.10023827 -0.06408193 0.17073286 0.06280132 -0.014534377 0.04939481 -0.23927715 -0.2568863 0.030624509 0.1618059 -0.13525215 -0.06420868 -0.08586206 -0.059107617 -0.15669952 -0.18415378 -0.049604807 0.01671925 0.016237583 0.041634843 0.045225114 0.0027948278 0.05537781 0.008308513 -0.046315614 0.14797996 -0.17781132 0.0010435295 -0.010109726 -0.07682562 0.3484297 0.032653566 -0.15927708 0.111818105 -0.0035752903 -0.08487112 -0.10194402 -0.14332317 0.055953175 -0.15463097 -0.004458463 0.19542962 0.17552374 0.3704504 0.024189578 -0.034879584 0.052751888 0.201194 0.050509755 -0.05035582 0.07715165 0.115883194 -0.030778231 -0.017683085 0.07378512 -0.24307954 0.19860151 0.036871996 -0.0604549 -0.0017130057 0.065791465
5 0.14846586 0.15324797 -0.026182216 0.059279777 -0.0058255196 0.11395156 -0.02404159 0.064971946 0.059939977 0.06559299 -0.10340028 0.005280657 0.022119109 -0.121007785 -0.2134948 -0.14691593 -0.014684485 -0.15090258 -0.06376737 0.18569653 -0.14108558 0.10023476 0.14911085 -0.018994957 -0.00792984 -0.16753623 -0.0016347049 0.13068497 -0.020980878 0.052970387 -0.106608726 0.16534768 -0.008194432 0.20870467 -0.05120333 0.009875569 -0.05040596 0.10997698 0.1149437 -0.11067273 -0.054698505 0.04414772 -0.10560559 0.20112601 0.2822853 -0.08193972 0.09167508 0.010669523 0.021532537 -0.035806663 -0.0037703358 -0.08576147 -0.073415115 -0.17119253 -0.09934131 0.3569332 -0.053509347 -0.049800593 -0.013687399 0.056355048 -0.10293882 -0.011578446 -0.076951124 0.122697726 0.05964146 0.11121405 0.15166672 -0.07973694 0.13715854 0.11752259 -0.061887663 -0.14860693 0.097947046 -0.14582492 -0.2949435 -0.10757147 0.004560937 -0.055142228 -0.09856352 -0.28772247 0.17197524 -0.23203947 0.08540204 0.2714322 0.013042995 0.06523807 0.07969913 -0.08930145 0.1167208 0.16751237 0.010874742 -0.021785855 0.116854504 0.093583494 -0.034554973 0.16894707 0.032681067 0.13772197 -0.113495134 -0.09642788 -0.04791722 0.02476166 -0.1564849 -0.07347759 0.0029368438 0.0036367397 -0.14269735 0.13081154 0.07431478 -0.06273434 0.21235533 0.1313983 0.100422904 -0.090832606 0.20812176 0.0729531 -0.16299152 0.027910503 0.043857075 -0.054674953 0.069023624 0.12778999 -0.0253807 0.1190089 0.1253814 -0.027194764 -0.015148309 0.1424884
11 0.14385559 0.14382602 -0.026279913 0.057911657 -0.006326113 0.114798725 -0.02581231 0.06966398 0.05332191 0.062137138 -0.101815455 0.0020032623 0.022649929 -0.113535956 -0.21026722 -0.1412637 -0.013845398 -0.14029269 -0.064305894 0.17981645 -0.12791802 0.10159051 0.14812848 -0.024458423 -0.008220979 -0.1648083 -0.0036760503 0.13286027 -0.017763957 0.056484487 -0.09843157 0.16024323 -0.009752732 0.20048122 -0.05142421 0.0018084672 -0.051778447 0.10783396 0.11104718 -0.10737333 -0.052158196 0.040452726 -0.1007107 0.19991547 0.28491578 -0.077218115 0.08617755 0.015360101 0.021965235 -0.03562788 -0.0011562158 -0.0803165 -0.0732811 -0.16774416 -0.09331428 0.35867706 -0.05167297 -0.050995458 -0.0062900786 0.057701033 -0.10401021 -0.008707862 -0.07815895 0.123058096 0.05763034 0.10591844 0.15031792 -0.07813626 0.13752912 0.11936083 -0.06219898 -0.15198979 0.10483854 -0.14826949 -0.29097235 -0.10748409 0.0017120219 -0.06145918 -0.09522168 -0.28710246 0.16782105 -0.23324895 0.08275549 0.2682404 0.017383553 0.058932588 0.080168344 -0.087872334 0.11546987 0.16679038 0.01058658 -0.021337748 0.11654664 0.09075331 -0.036097944 0.16942918 0.032238204 0.14037035 -0.11123363 -0.0948886 -0.04826131 0.022898844 -0.15493071 -0.0750848 -0.0026451119 0.0022984897 -0.14373563 0.13059397 0.071974054 -0.058047965 0.21824543 0.12657225 0.098334454 -0.08797581 0.2095844 0.06700009 -0.16676328 0.027208028 0.04258145 -0.048943754 0.0675229 0.13287906 -0.023016391 0.11820796 0.12623052 -0.027220134 -0.019177232 0.14674868
29 0.064274 0.15963131 -0.05672428 0.020079436 0.077908285 0.07687137 -0.016400816 0.04029251 0.11164308 0.041612003 -0.023073202 0.07107562 0.056556374 -0.083478086 -0.20265324 -0.12581426 -0.030158922 -0.24658816 -0.011340733 0.23567754 -0.17006798 0.15016478 0.25277317 0.0120942425 -0.048475303 -0.10903464 0.101370834 0.011844426 -0.023603754 0.031945568 0.025665887 0.11595954 0.10846988 0.14835091 -0.004684584 0.07208012 0.03428775 0.02192724 0.10594324 -0.08292308 -0.07332832 0.11054744 -0.12931357 0.1329435 0.2117238 -0.10962633 -0.052852396 -0.044401236 0.08438559 -0.03375612 -0.017567046 -0.04038895 -0.027158983 -0.106396995 -0.1658549 0.2070867 -0.021147223 0.00075171527 0.01967594 0.021833852 0.042845752 -0.03806432 -0.033303395 0.14955999 0.0035587715 0.06607656 0.100199595 -0.08647875 0.010571372 0.14786248 0.007348728 -0.067547575 0.06768693 -0.19699518 -0.25722176 -0.024265489 0.09245473 -0.098329656 -0.07529955 -0.15423778 0.041575827 -0.17236671 -0.066380605 0.07488039 0.015698763 0.040844608 0.05261808 -0.008146635 0.043068442 0.090741135 0.003891675 -0.038138945 0.13056567 -0.06295276 -0.00829015 0.064715475 -0.029379329 0.25404078 -0.02644548 -0.13577126 0.03973476 -0.000935265 -0.10758848 -0.0821545 -0.07861702 0.03123191 -0.15080678 0.0487569 0.13855028 0.079166986 0.29048163 0.063776374 0.022239499 -0.0062626535 0.19648553 0.05409225 -0.08967347 0.05833617 0.08091662 -0.041324828 0.014587895 0.09035323 -0.15403505 0.16489989 0.06559751 -0.040001597 -0.0070199077 0.09310494
20 0.090807855 0.1562358 -0.04640887 0.032206442 0.054298226 0.092416234 -0.021967838 0.04624048 0.098082155 0.050340094 -0.048125956 0.048267026 0.047433406 -0.09701124 -0.20641813 -0.132025 -0.028754007 -0.21482414 -0.028631495 0.21731877 -0.15715225 0.13792056 0.2142456 -0.0042368807 -0.027215973 -0.12695667 0.07122478 0.05846006 -0.018400347 0.042942118 -0.025922872 0.12831916 0.070420474 0.17064142 -0.01995267 0.047722768 0.0062577347 0.055451762 0.10781287 -0.089714445 -0.0680864 0.090124846 -0.12250022 0.15561937 0.23530859 -0.10591492 -0.002625286 -0.01980684 0.06382305 -0.033633646 -0.01746242 -0.06341219 -0.044876434 -0.13006462 -0.13955696 0.26312017 -0.037876897 -0.013406536 0.015141662 0.035028283 -0.011493287 -0.028276993 -0.046617642 0.13711335 0.020003589 0.0842299 0.12029599 -0.08566782 0.05270561 0.13776876 -0.011287109 -0.09101809 0.073361695 -0.1784119 -0.26613805 -0.05268287 0.060884748 -0.081428625 -0.08469476 -0.19712712 0.08525354 -0.19522378 -0.016314646 0.1416686 0.012756845 0.049304754 0.061226286 -0.03608186 0.068778984 0.118543275 0.004991834 -0.03359415 0.12980099 -0.014192287 -0.017333305 0.09478643 -0.0131786745 0.21309617 -0.05752046 -0.1200756 0.009305186 0.005327783 -0.12298298 -0.0805683 -0.05679955 0.025950942 -0.14702858 0.07337508 0.11635395 0.033743236 0.261433 0.08162262 0.053503312 -0.04040562 0.19297104 0.059495553 -0.11486826 0.046243776 0.061305247 -0.03910594 0.029056337 0.10131616 -0.1086204 0.15086819 0.08880456 -0.037389778 -0.010957855 0.11683469
31 0.05522862 0.15348752 -0.05673566 0.014811654 0.08542025 0.073849075 -0.019076139 0.035721004 0.10775718 0.0415098 -0.01464569 0.06945457 0.04921592 -0.08065485 -0.19191644 -0.120455794 -0.030492034 -0.23967512 -0.012980114 0.23027995 -0.16475645 0.14589551 0.25359258 0.006384668 -0.039255377 -0.10088033 0.10335052 0.0047982726 -0.02543369 0.03388849 0.03438085 0.1066921 0.11185132 0.13920812 -0.0055244463 0.07843338 0.04252677 0.015979318 0.09887952 -0.07821601 -0.078388885 0.109323315 -0.12623973 0.12139508 0.20026717 -0.10492805 -0.061034516 -0.046655204 0.0781728 -0.028149523 -0.012047965 -0.042028446 -0.022704342 -0.1025378 -0.16226624 0.19661474 -0.021377865 0.008817687 0.02067151 0.015428541 0.046697464 -0.036773436 -0.028212348 0.14819813 0.007876973 0.062324006 0.09266358 -0.08539274 0.0081925 0.14392556 0.011145729 -0.060779702 0.057441436 -0.18825324 -0.25350317 -0.023209618 0.09093521 -0.093989745 -0.06627025 -0.14925492 0.027068164 -0.17088161 -0.07860631 0.06452251 0.014034205 0.033109434 0.058031972 -0.0063885394 0.03360405 0.08859456 0.005471457 -0.0388759 0.1298771 -0.07664364 -0.009746505 0.057175636 -0.035655644 0.2522114 -0.024955936 -0.12772144 0.045064982 -0.0018917805 -0.10575543 -0.083004944 -0.08772779 0.03363384 -0.14592871 0.040648524 0.13692698 0.081702456 0.2913636 0.06175102 0.016918441 -0.0005612096 0.18466297 0.05443094 -0.084325574 0.055961188 0.077469766 -0.04096184 0.009367204 0.08858831 -0.15654773 0.16096781 0.06715982 -0.044357955 -0.00055723963 0.09391462
25 0.05658507 0.1688203 -0.059937946 0.021362761 0.088764496 0.07714718 -0.007601447 0.038958922 0.12240532 0.04023513 -0.027459843 0.086529195 0.0648854 -0.08859395 -0.21115029 -0.13661736 -0.031386126 -0.27020136 -0.0012838027 0.2617609 -0.1882728 0.1573 0.28313255 0.0121493265 -0.05542127 -0.11230792 0.11843952 0.0065449234 -0.035295945 0.034712903 0.040352218 0.12436316 0.1308281 0.1522825 -0.0034404178 0.08395765 0.04210791 0.01619023 0.103894204 -0.08532955 -0.07804246 0.118607186 -0.13474886 0.13352145 0.22018433 -0.11243835 -0.06446961 -0.058880012 0.089311734 -0.030459786 -0.011853894 -0.04178393 -0.03176157 -0.11166967 -0.17914863 0.21120329 -0.021914762 0.005904529 0.02313237 0.021024616 0.06151947 -0.036796596 -0.034407582 0.16318657 0.004262113 0.07101413 0.10255794 -0.09225711 -0.00035152998 0.15370469 0.017831758 -0.057416815 0.070206046 -0.21248709 -0.2656345 -0.021462286 0.104781196 -0.10559078 -0.07955205 -0.15728262 0.033142563 -0.17870007 -0.090976104 0.061425574 0.017084695 0.031625237 0.057934638 -0.004997486 0.038073238 0.09340129 0.0096210465 -0.036921404 0.13985156 -0.087571315 -0.0038729282 0.052953534 -0.037038602 0.27975014 -0.019425184 -0.14713283 0.05882731 0.0024349773 -0.11042508 -0.09181962 -0.093811624 0.035093885 -0.1540431 0.039529968 0.15705629 0.09354869 0.32114628 0.07132819 0.017644461 0.00095813867 0.21096797 0.061325565 -0.08674809 0.059511457 0.09043709 -0.042292453 0.0118120285 0.09961337 -0.17322484 0.17916968 0.069304556 -0.05025646 -0.006618604 0.09278469
26 0.026350172 0.17016912 -0.0763973 0.010158934 0.12467648 0.062515035 -0.0030747012 0.031161908 0.13504006 0.0327432 0.004275082 0.112468444 0.07324884 -0.06672115 -0.20669392 -0.12762453 -0.03858056 -0.30822688 0.019882161 0.27810732 -0.19722337 0.17575659 0.32931563 0.024213007 -0.06976244 -0.0850636 0.1602186 -0.04198224 -0.03429403 0.030314527 0.09153695 0.10314634 0.17669234 0.12526105 0.014055003 0.11832348 0.07470296 -0.022181021 0.10084945 -0.07723954 -0.09519393 0.14184472 -0.14640784 0.10674456 0.19261503 -0.119459 -0.121649645 -0.07941817 0.11023809 -0.028698927 -0.01812074 -0.020391382 -0.011152379 -0.08859788 -0.20917158 0.14953578 -0.0065202373 0.03202973 0.04135446 0.0042070295 0.12036394 -0.052214038 -0.015373415 0.17128533 -0.017441116 0.05916697 0.082251854 -0.09773514 -0.045088533 0.15649468 0.047060803 -0.02906883 0.060080733 -0.23475938 -0.26003385 0.009205953 0.1462776 -0.119778596 -0.07015877 -0.10415539 -0.024250474 -0.16113387 -0.1545967 -0.011595408 0.013314802 0.014301294 0.049978774 0.022677032 0.01144684 0.06574612 0.010628222 -0.043390386 0.1407757 -0.15019539 0.0052963593 0.0070769642 -0.057930283 0.3312404 0.010163385 -0.15847094 0.09051551 -0.000490108 -0.089524634 -0.09130785 -0.13346297 0.04787617 -0.14998876 0.0061351736 0.17846142 0.15155502 0.36003253 0.040433418 -0.01795987 0.033227652 0.20310387 0.04694538 -0.05513237 0.07986322 0.10712185 -0.0406963 -0.0041749054 0.0808278 -0.22573808 0.19376561 0.043940853 -0.053529516 -0.006307116 0.080620736
17 0.13485849 0.14191538 -0.017769838 0.05716795 -0.009694108 0.10603232 -0.01968323 0.06583208 0.0547191 0.062297203 -0.09202643 0.0046715788 0.025768174 -0.114537306 -0.20864272 -0.13535093 -0.021009754 -0.14327528 -0.059411325 0.17666811 -0.12718304 0.10304485 0.15037175 -0.02344285 -0.0072276713 -0.16046016 0.00080304244 0.12532096 -0.017274357 0.052879065 -0.091054045 0.15558304 -0.002228907 0.18621764 -0.049188305 0.008393735 -0.04036931 0.10621094 0.114392795 -0.1069002 -0.057048485 0.046502355 -0.106153734 0.18657406 0.28623387 -0.07649038 0.08161536 0.002148682 0.02486179 -0.043410223 -0.0011037291 -0.08627568 -0.07408438 -0.15911569 -0.09711381 0.35291696 -0.046459515 -0.052350346 -0.007295365 0.058770217 -0.09017517 -0.013612187 -0.08091349 0.13233274 0.048546817 0.109159425 0.14413898 -0.08737745 0.13213047 0.12238707 -0.060961682 -0.14955205 0.10377449 -0.14490326 -0.29718804 -0.10025706 0.011244019 -0.06587248 -0.09566469 -0.2862024 0.16416305 -0.23555066 0.07358264 0.26034716 0.019694878 0.060337644 0.082132205 -0.07918308 0.11285059 0.15533677 0.015615844 -0.024209458 0.11820961 0.08814515 -0.036703903 0.16293189 0.02706449 0.15062302 -0.10732957 -0.10383259 -0.042678766 0.026855197 -0.15381584 -0.07344289 -0.007538688 0.0034756213 -0.1492552 0.13169338 0.0843329 -0.050994013 0.225071 0.1274392 0.08832476 -0.0780522 0.21131437 0.0733407 -0.16621228 0.02873428 0.03953015 -0.055916592 0.06569867 0.13323645 -0.02864123 0.120575085 0.12688595 -0.028358353 -0.019913001 0.14077213
23 0.06317122 0.1499852 -0.049148247 0.0147021115 0.078267545 0.07595558 -0.016618349 0.04066609 0.0984598 0.040519245 -0.018150873 0.058546763 0.047931824 -0.07567863 -0.19032736 -0.119482934 -0.027561795 -0.2261988 -0.016783511 0.21879855 -0.15679424 0.14403643 0.24450701 0.0036504015 -0.041095275 -0.10014476 0.09714605 0.018079665 -0.025191275 0.03358596 0.024744548 0.11568047 0.10589431 0.14126079 -0.0032339045 0.07064743 0.032353833 0.018966274 0.0953349 -0.08194604 -0.07160464 0.10721306 -0.12850162 0.12884386 0.19809404 -0.1054742 -0.048816264 -0.04549187 0.07064018 -0.033437878 -0.014317439 -0.039034255 -0.024668142 -0.10439084 -0.15533412 0.19790775 -0.025147483 0.004882939 0.021669876 0.013882637 0.04023585 -0.032462854 -0.032493457 0.13900092 0.006386792 0.070662014 0.09201646 -0.07697104 0.013545512 0.13585165 0.010617826 -0.05926744 0.066101536 -0.18714014 -0.2460887 -0.028731765 0.082722746 -0.09350929 -0.068761535 -0.15256834 0.033247296 -0.16869318 -0.06771135 0.07578901 0.01092556 0.030633211 0.05610074 -0.014179295 0.040257987 0.08897837 0.0077105504 -0.03618801 0.1258623 -0.05827526 -0.012073398 0.063627996 -0.026657606 0.23814996 -0.028489871 -0.1204676 0.044811722 0.0021967844 -0.10434614 -0.078338884 -0.07726237 0.036253754 -0.1448648 0.046807982 0.12569904 0.07507809 0.27743775 0.05730108 0.018246416 -0.0035600648 0.18093568 0.054509252 -0.08993917 0.054848894 0.07129884 -0.041505475 0.017011497 0.08693335 -0.14630103 0.15351233 0.06816879 -0.038477886 -0.006378043 0.090580285
22 0.14664862 0.16111061 -0.033898905 0.05603808 0.01108428 0.11432295 -0.025748601 0.053726073 0.07365555 0.06439966 -0.0898363 0.007076 0.034848556 -0.11930914 -0.21711925 -0.13821803 -0.020859998 -0.17160887 -0.055271275 0.19220434 -0.15237713 0.11220586 0.16955031 -0.015921336 -0.014543644 -0.16494998 0.020254048 0.1225842 -0.014210127 0.05228968 -0.09359828 0.15426621 0.01886214 0.20328298 -0.036271527 0.019498406 -0.0365552 0.095053114 0.117001235 -0.10151156 -0.05804673 0.05916114 -0.11362688 0.19040395 0.2742175 -0.09182483 0.07632515 0.008245071 0.04287563 -0.040183887 -0.014597055 -0.084022425 -0.06800613 -0.16522045 -0.11347426 0.34498686 -0.053146098 -0.041379023 -0.0046500335 0.051412158 -0.07732266 -0.00801736 -0.074512884 0.12391984 0.04463864 0.10399025 0.14833428 -0.08080216 0.1136438 0.12994282 -0.05314821 -0.14202423 0.096077986 -0.15534325 -0.29254338 -0.098687835 0.02070735 -0.060517848 -0.0892219 -0.2701384 0.15928923 -0.22209765 0.061758034 0.24609937 0.007616733 0.063433744 0.08283298 -0.07729634 0.105225354 0.15972972 0.0031653403 -0.029767118 0.12072048 0.06582281 -0.028741242 0.15727858 0.019867234 0.15472077 -0.10419784 -0.10685794 -0.02880808 0.016427727 -0.14907716 -0.07750851 -0.0075937696 0.014982473 -0.15663022 0.116735995 0.082748756 -0.04337257 0.2237216 0.11942497 0.08952114 -0.08777702 0.20309038 0.07719806 -0.14489461 0.032901894 0.04838686 -0.04628802 0.055189844 0.11832249 -0.05254057 0.12786719 0.11805477 -0.024047285 -0.01435217 0.14306252
13 0.09818996 0.14838123 -0.038644683 0.030823972 0.047011644 0.09041567 -0.025445098 0.043264713 0.084540375 0.051068418 -0.04920837 0.032433115 0.04016688 -0.09872332 -0.1913861 -0.11969757 -0.018947152 -0.19010207 -0.035769906 0.19602697 -0.1455865 0.11967255 0.18812364 -8.572704e-05 -0.024097158 -0.12457888 0.056357972 0.066313945 -0.021371229 0.039193526 -0.032733988 0.12434007 0.057998955 0.17061424 -0.023808237 0.038183372 0.00034329435 0.06112966 0.09923601 -0.09119353 -0.065984845 0.0745674 -0.116851255 0.15391369 0.21848522 -0.0979619 0.014121249 -0.015620585 0.054711826 -0.030551663 -0.01708338 -0.061420165 -0.047202393 -0.13316749 -0.12939848 0.2623215 -0.034101743 -0.022479491 0.008949962 0.030602286 -0.022859167 -0.019017512 -0.04813071 0.12400951 0.027435657 0.08155355 0.11719108 -0.07488384 0.063836165 0.12598798 -0.017084917 -0.09965572 0.07590678 -0.1619051 -0.2576041 -0.05977236 0.045892403 -0.06999663 -0.07492784 -0.19672257 0.093968734 -0.18747939 -0.00048997777 0.15259527 0.0100911865 0.05157702 0.0646273 -0.035392843 0.07215121 0.12206485 0.0024956134 -0.026332568 0.12048614 -0.0018672295 -0.016807767 0.102755025 -0.0028412694 0.18464053 -0.064018145 -0.108373575 0.0029429148 0.0033213783 -0.11549045 -0.069485515 -0.039948024 0.021995058 -0.13971962 0.07122172 0.10532178 0.012614091 0.23609984 0.08908899 0.059699357 -0.051189426 0.18149973 0.06444514 -0.108477145 0.04007996 0.05955584 -0.038051352 0.035696432 0.09562237 -0.08896828 0.13724051 0.09060578 -0.030441796 -0.00993606 0.116023675
18 0.11908191 0.14799035 -0.032866687 0.046013974 0.0296367 0.096288435 -0.021697525 0.05026591 0.08053177 0.05556061 -0.066071495 0.020899216 0.03842029 -0.10914645 -0.20787053 -0.12775217 -0.021200988 -0.18300553 -0.047136333 0.1984342 -0.1533422 0.118078515 0.18573315 -0.005748263 -0.02244848 -0.14369324 0.044794317 0.09156776 -0.014173786 0.043490153 -0.0623473 0.13569076 0.038007412 0.18166539 -0.028200328 0.026565535 -0.020059776 0.07457436 0.1106826 -0.09334794 -0.059536364 0.07107849 -0.11517857 0.17343792 0.24995664 -0.100669794 0.03667089 -0.0025471086 0.046811964 -0.036646582 -0.01581778 -0.07489134 -0.06068925 -0.14653581 -0.12891051 0.29748526 -0.046773884 -0.033662967 0.0012571219 0.036322054 -0.0434081 -0.01527144 -0.05363878 0.13266827 0.03017481 0.090604186 0.13206317 -0.07720241 0.08465251 0.1348109 -0.032787673 -0.11957097 0.07894633 -0.1666081 -0.27478793 -0.0700842 0.035713006 -0.06922937 -0.08881148 -0.22894132 0.12574239 -0.20495148 0.026739245 0.19168402 0.013710044 0.06139082 0.0718616 -0.055316444 0.08732978 0.13964087 0.0028893293 -0.028726062 0.12501188 0.030306967 -0.01808453 0.12561366 0.0047736084 0.182224 -0.08102231 -0.114895865 -0.011217482 0.005840608 -0.12902789 -0.074799545 -0.032711808 0.0129144415 -0.15532596 0.09303347 0.10144061 -0.004163994 0.23741819 0.10468268 0.07378351 -0.06437405 0.20136549 0.07032245 -0.12936457 0.041156393 0.049370065 -0.04872399 0.048247978 0.11004483 -0.07939574 0.13734473 0.10272291 -0.027925879 -0.009726173 0.12768249
15 0.052551653 0.14769118 -0.05727349 0.012391894 0.0846575 0.071735 -0.014951202 0.037035715 0.108947635 0.041811667 -0.014728184 0.06734255 0.05642238 -0.07859724 -0.1977571 -0.119630374 -0.030233966 -0.24715547 -0.010353579 0.2341538 -0.16851805 0.15306361 0.26420978 0.007719241 -0.039926954 -0.09208249 0.110242024 0.0039254157 -0.023447622 0.02635217 0.047684 0.11313481 0.12158952 0.13932627 -0.0006087546 0.07915771 0.044463053 0.011527397 0.101444684 -0.08421392 -0.07669746 0.119849235 -0.1356049 0.12678798 0.19925097 -0.11073415 -0.06701735 -0.062234517 0.08385202 -0.031659212 -0.014955631 -0.038029976 -0.02283012 -0.09635415 -0.17003818 0.18909438 -0.0198559 0.011206708 0.025718028 0.009515911 0.056069613 -0.04119246 -0.023618445 0.14950562 0.006214075 0.0642972 0.09326264 -0.081029214 0.0029158911 0.14597511 0.016732901 -0.056165356 0.06100547 -0.1994738 -0.25599107 -0.0188058 0.09889784 -0.099393204 -0.067920595 -0.14461866 0.0174758 -0.1725723 -0.091732964 0.058006216 0.015841322 0.029309904 0.05177267 0.00104624 0.033540424 0.08758984 0.007952435 -0.03900925 0.12932631 -0.08349246 -0.002810103 0.05512161 -0.03614538 0.26129755 -0.01501152 -0.12614566 0.0573434 -0.0010494436 -0.10851198 -0.08897707 -0.08955034 0.03893751 -0.14996603 0.034759186 0.14125799 0.09405292 0.304853 0.055311993 0.010075068 0.0061656777 0.19292115 0.056569837 -0.085830174 0.05330237 0.08341515 -0.041430734 0.008238347 0.08756513 -0.16765754 0.16210124 0.06265105 -0.046104543 -1.2831297e-06 0.08838721
21 0.052484516 0.14518331 -0.0566475 0.013899554 0.086548515 0.07682557 -0.015061457 0.033388164 0.106065184 0.040935054 -0.013615092 0.06918354 0.055144235 -0.07872078 -0.1940938 -0.11988621 -0.031638425 -0.24166073 -0.008449231 0.22836798 -0.16633716 0.14488082 0.25575802 0.007106312 -0.04463685 -0.0943975 0.10302171 0.0052970406 -0.024916958 0.027531067 0.033698596 0.11512113 0.116408266 0.1405872 -0.0006131127 0.074119985 0.040482268 0.020299617 0.10341787 -0.08622395 -0.077906325 0.111719646 -0.13263929 0.12335516 0.19884507 -0.10826571 -0.06306873 -0.051924665 0.08170339 -0.02726897 -0.012540746 -0.04077614 -0.022335056 -0.10319022 -0.16091686 0.19213644 -0.021334881 0.0076281475 0.027351296 0.010873077 0.049921352 -0.038960245 -0.027702942 0.1466098 0.0041859425 0.070152044 0.09064429 -0.08276262 0.00658948 0.13750637 0.016895162 -0.054998703 0.05978786 -0.1957276 -0.2512745 -0.025484031 0.09580059 -0.09777786 -0.071055345 -0.14562891 0.025652206 -0.16639757 -0.08118609 0.0658248 0.0097575085 0.02640665 0.05315397 -0.00670535 0.036849283 0.08432309 0.0010882146 -0.038082216 0.12669495 -0.07386641 -0.0039466983 0.05632495 -0.03235541 0.25235724 -0.023457661 -0.12542789 0.0515775 -0.0015345793 -0.1056171 -0.08673462 -0.081415966 0.037858132 -0.14868347 0.04204315 0.13973758 0.08276454 0.294573 0.05638694 0.019398965 -0.002796053 0.18832153 0.058170326 -0.081731826 0.055058092 0.07942703 -0.040871296 0.010055086 0.09194744 -0.15663272 0.16147223 0.06373896 -0.04067158 -0.007327996 0.09387668
19 0.041601878 0.1562998 -0.058550343 0.0101220235 0.091268115 0.07223027 -0.015413147 0.035553973 0.11802851 0.041577257 -0.006828808 0.07491011 0.05975867 -0.07459543 -0.19520347 -0.11899543 -0.03502164 -0.25924182 0.00019296515 0.24601541 -0.17071757 0.1580254 0.27711427 0.0130632315 -0.04448806 -0.09262848 0.11411763 -0.004041786 -0.028667854 0.026835538 0.055303752 0.11199494 0.12844196 0.13481091 0.000524741 0.08210389 0.054586258 0.00527418 0.10432416 -0.08139371 -0.07785394 0.12374955 -0.13778523 0.12239298 0.20015651 -0.11274046 -0.07587682 -0.06562445 0.08991216 -0.033436023 -0.014674364 -0.03218263 -0.020351304 -0.09628527 -0.17718154 0.17928751 -0.021538569 0.0142117785 0.027174113 0.012650132 0.07013244 -0.045975495 -0.023503829 0.15504123 -0.003501243 0.06300241 0.08707152 -0.086429566 -0.005601055 0.14819317 0.024845699 -0.052910436 0.060833927 -0.20465933 -0.25848684 -0.014566043 0.104961075 -0.10738225 -0.072902575 -0.1361895 0.014410278 -0.16626437 -0.1004185 0.044047963 0.011400326 0.025039215 0.052247453 0.00073483353 0.028407333 0.07763424 0.00459767 -0.039897196 0.13127115 -0.095504925 -0.0025725733 0.041897822 -0.038598534 0.26979566 -0.014212627 -0.13381796 0.06461333 0.005119615 -0.1018606 -0.085732915 -0.094747394 0.04064518 -0.14968473 0.02860773 0.15018342 0.10105081 0.3158995 0.057187162 0.0054387054 0.009710275 0.19706017 0.052443612 -0.076963514 0.056281306 0.088333204 -0.04070157 0.005347532 0.086519994 -0.17893025 0.17333594 0.06031552 -0.047217388 -0.006428636 0.08859643
10 0.053838097 0.15725614 -0.057791255 0.012465798 0.089643724 0.07675874 -0.0128603615 0.03459896 0.117823645 0.0379227 -0.01809584 0.07330037 0.054261427 -0.08372518 -0.20296748 -0.12157472 -0.035943728 -0.2554476 -0.011294681 0.24638408 -0.1710007 0.15699194 0.26521474 0.014264504 -0.04258062 -0.100725494 0.11168224 0.0026763785 -0.023348235 0.026465701 0.034278832 0.11192212 0.11806511 0.14034261 -0.00046260882 0.07858443 0.04609639 0.015109389 0.104549065 -0.08313485 -0.08061758 0.11535303 -0.13624872 0.12931655 0.20939784 -0.11238507 -0.062610134 -0.05660069 0.08938893 -0.03094683 -0.012462656 -0.039812226 -0.027023662 -0.10436871 -0.17598633 0.19970573 -0.023023091 0.011040751 0.026842672 0.012671846 0.059495647 -0.03878638 -0.0302517 0.15150237 0.001607559 0.0690001 0.099824704 -0.091188885 1.4095451e-05 0.15011223 0.014768301 -0.055548854 0.059969317 -0.20058835 -0.26063272 -0.019621534 0.103534006 -0.09956598 -0.074546516 -0.14802504 0.023953078 -0.17069791 -0.08871276 0.059293214 0.01166061 0.034289025 0.058954332 -0.0004115717 0.039153934 0.09136511 0.0044581485 -0.036416363 0.13223724 -0.08013057 -0.008101277 0.05766849 -0.038633537 0.26818582 -0.020985972 -0.13768095 0.05108296 0.0018418423 -0.10460031 -0.09149416 -0.09126933 0.03686923 -0.15630333 0.0383218 0.14866117 0.09390391 0.30219117 0.05873866 0.019571835 0.00035934802 0.19391762 0.053249206 -0.08717122 0.06061627 0.08338873 -0.039755695 0.008418165 0.08996039 -0.16443618 0.17278966 0.06663262 -0.04515803 -0.0019598105 0.09461514
16 0.059003606 0.15146635 -0.055767618 0.011936715 0.089654475 0.0741411 -0.015028768 0.039213035 0.11348481 0.043649357 -0.010524729 0.065429784 0.05185321 -0.07955673 -0.20262909 -0.1244804 -0.031201707 -0.24685489 -0.014724966 0.2437159 -0.17192581 0.15090509 0.26575917 0.009298249 -0.043353952 -0.09980422 0.10710532 0.00753108 -0.030570764 0.027182601 0.040375575 0.113447055 0.11645692 0.14600883 -0.007332957 0.07934428 0.044663884 0.016624046 0.105599485 -0.09034745 -0.07742204 0.11424497 -0.13306217 0.12613603 0.19987479 -0.10629642 -0.06658113 -0.059231337 0.07934486 -0.034665585 -0.010970627 -0.03846476 -0.024603732 -0.102619305 -0.17261922 0.19679771 -0.021021137 0.004121945 0.023680346 0.0171093 0.05209948 -0.040195256 -0.024442071 0.15629226 0.008163422 0.06977451 0.09868341 -0.08912684 0.006486542 0.15195723 0.020612145 -0.05744019 0.06282599 -0.19934066 -0.26262903 -0.024125317 0.0972945 -0.1046956 -0.07260059 -0.15600957 0.02168233 -0.17822792 -0.0857392 0.068590395 0.015456554 0.031568844 0.060030613 -0.005819853 0.037602328 0.08821777 0.003040237 -0.0416452 0.13416126 -0.07889762 -0.0074903495 0.06029322 -0.038476393 0.26178554 -0.025294721 -0.13305366 0.05527845 0.0044753216 -0.109303 -0.08995289 -0.091095366 0.03467626 -0.15074867 0.040924717 0.13905111 0.083501935 0.30573505 0.05706546 0.01439471 0.0012356516 0.19727722 0.056768253 -0.09182382 0.054742612 0.08175966 -0.036910884 0.011566327 0.09136207 -0.16788533 0.16507009 0.06758837 -0.044767495 -0.0038822095 0.09075675
27 0.036991958 0.15646438 -0.06175597 0.007854655 0.10128418 0.064494155 -0.013103576 0.031085514 0.12511584 0.03583214 0.001347194 0.08691028 0.062281117 -0.07259513 -0.20298703 -0.11982724 -0.033844743 -0.27198386 -0.0007188741 0.26145732 -0.18115015 0.16600423 0.28995565 0.012638408 -0.046667915 -0.09224929 0.12671287 -0.016128639 -0.029809149 0.033220705 0.062486954 0.10147984 0.14328673 0.13446312 0.0055201175 0.090100385 0.06378408 -0.0025320002 0.09859119 -0.08387415 -0.0863147 0.12795469 -0.1381425 0.12058343 0.1940256 -0.108762875 -0.08765996 -0.06968714 0.08882789 -0.026044874 -0.013792872 -0.03798738 -0.019085068 -0.0937115 -0.18598364 0.16834588 -0.014322853 0.018931191 0.031067949 0.011297524 0.08195572 -0.043015845 -0.018612329 0.16445737 -0.004375756 0.06440033 0.089929946 -0.08851883 -0.013343079 0.15528318 0.035291344 -0.046497203 0.061583176 -0.2131065 -0.2559432 -0.0043230387 0.115912475 -0.112535715 -0.07190097 -0.12905481 -0.0013721178 -0.16513866 -0.11301777 0.026660074 0.013624272 0.026986131 0.04996597 0.015145464 0.030025959 0.0799035 0.008383714 -0.041786037 0.13875586 -0.10516919 -0.007248075 0.034189846 -0.04783635 0.28087014 -0.00037425756 -0.1408775 0.06847404 0.0005303431 -0.09396212 -0.08535825 -0.10878847 0.0443639 -0.14928028 0.023850247 0.15525676 0.11561956 0.31819487 0.046328276 -0.0017882114 0.018029671 0.1971398 0.052001353 -0.07770691 0.06599859 0.09034111 -0.034575533 0.004263115 0.084086545 -0.18803582 0.17507349 0.058509182 -0.05135703 0.0011737851 0.08284143
12 0.104673944 0.15479027 -0.03613337 0.03850644 0.0453455 0.09606547 -0.01967449 0.0460238 0.08514119 0.049277704 -0.058355298 0.03579205 0.042147614 -0.09994092 -0.20550531 -0.12501088 -0.025652533 -0.20136864 -0.03668865 0.20846613 -0.15630017 0.12954213 0.20314977 -0.0071217446 -0.030007966 -0.13390799 0.061708584 0.07329117 -0.023892514 0.046107706 -0.034633808 0.13595705 0.056544635 0.18013516 -0.02287794 0.044987768 -0.0063862633 0.06570867 0.11123465 -0.094984666 -0.07034675 0.08205381 -0.12201594 0.16210257 0.24607038 -0.10416406 0.014423203 -0.015922632 0.057815567 -0.036085144 -0.015928887 -0.0668362 -0.055227146 -0.14416358 -0.14128655 0.28883475 -0.04178374 -0.022265183 0.009741438 0.03192972 -0.027041152 -0.02271437 -0.051880073 0.13931221 0.030608071 0.086767435 0.12793326 -0.08594859 0.06867096 0.13706455 -0.026306126 -0.108484015 0.08397587 -0.18153627 -0.28556234 -0.060836658 0.054518282 -0.07801243 -0.083118945 -0.21628097 0.10599165 -0.20828368 0.0029208707 0.1739199 0.012768187 0.050414618 0.07390311 -0.047907904 0.0745194 0.13242729 0.00079341093 -0.030947307 0.13272081 0.0018241508 -0.014911444 0.114974886 -0.0030861022 0.20956828 -0.07137897 -0.11711807 -0.0015846519 0.0076759155 -0.12910022 -0.07954651 -0.045309715 0.021882461 -0.15786748 0.08342437 0.11091465 0.016120505 0.26036116 0.09594111 0.064149424 -0.05458173 0.2079861 0.06753463 -0.1289468 0.04261496 0.0619727 -0.042528804 0.040249877 0.11364585 -0.09940814 0.15061218 0.1030851 -0.030005656 -0.0140301045 0.12769234
